UNK -0.20866625 -0.059597272 0.07277412 0.11152275 0.020898623 0.09598392 0.11488218 -0.22730508 -0.021612646 -0.075897455 -0.09017049 0.0142241595 0.017978683 -0.094016165 0.12724431 -0.07471526 0.080714755 0.036174264 -0.015051976 0.09618641 -0.036479607 0.28273296 0.16961558 -0.024937207 -0.06315792 -0.014550346 0.11753231 0.007157632 -0.00057209836 -0.029718215 -0.06795673 -0.07612497 0.0011633558 0.11855652 0.04084154 0.01828102 0.14233217 -0.13550575 -0.09556309 -0.03281764 0.06712676 0.039471243 -0.038942914 0.021494312 0.01728953 -0.04322157 -0.09499149 0.07612348 -0.009840742 -0.09312052 -0.083454356 0.12505092 0.04781446 0.081622235 -0.017662939 0.16269176 -0.050431438 -8.618044e-06 0.122806326 -0.18214303 0.11285233 0.07395912 -0.124294996 -0.06563157 -0.064519085 0.14312091 -0.046790924 0.031228231 0.07529679 0.13951404 0.21615756 0.09474452 -0.19422145 0.035268404 -0.15919545 0.22290234 -0.025923816 0.13648301 0.05522187 -0.050742444 0.01095184 -0.13314173 -0.13309926 -0.04720632 0.07851657 0.1398864 -0.10763655 -0.008839335 0.060197875 -0.046030845 0.0036082661 -0.014872421 0.048421364 0.11425467 0.13350031 -0.07809807 0.15706171 0.0995481 0.061819624 -0.07490087 
， -0.056674615 0.0011816511 -0.0034571316 0.09333332 -0.0015417166 0.13710772 0.105098434 -0.03731216 -0.03426636 -0.058466207 -0.117435195 0.10326255 -0.0036217002 -0.13741298 0.04826631 -0.065673344 -0.036459018 0.20609683 -0.045559816 0.058803547 -0.065105826 -0.047777176 0.005929804 -0.12942743 0.1599055 -0.090019 0.06884023 0.08370843 0.020302607 -0.14495978 -0.010980482 0.12895185 -0.020024441 -0.102339156 -0.16872844 -0.17297909 0.18694633 -0.11830064 -0.02154939 0.019233499 -0.048522685 0.06917176 -0.043062434 -0.016551176 0.16014652 0.028285531 -0.066995025 -0.028017426 -0.04503745 -0.0047047 -0.08604809 0.11833295 0.16245534 0.006849014 -0.08466897 -0.09390324 -0.1982472 -0.12736121 0.10120888 -0.15025192 0.06082135 0.1413904 0.0037233233 0.019599188 -0.07342192 0.074742384 -0.009209682 -0.024633603 -0.049371228 0.10583217 0.0956345 -0.0069478783 -0.04020833 -0.13394083 -0.003772417 0.022373205 -0.050885353 0.18699291 0.13754134 -0.07151717 0.05889102 -0.17263874 -0.066473715 -0.003526765 0.3153582 0.071496435 -0.19716564 0.013325443 -0.035030298 -0.11055505 -0.021889312 -0.030900408 0.033084456 0.16119719 0.025656408 -0.22857621 -0.0885036 0.08081442 0.0291388 -0.0097768875 
% 0.014966797 -0.11708487 0.04660077 0.07295168 0.028373549 0.2426342 0.19726697 -0.11300974 -0.09467757 -0.032290176 -0.15363349 0.16471012 0.11099166 -0.0052858554 -0.017034845 -0.1330873 -0.0043809474 0.12406889 -0.06067576 -0.081663094 0.08216178 -0.05694459 0.010098664 0.11887629 -0.08625908 0.031226987 -0.018307356 -0.14073484 -0.059552766 -0.14460845 0.07202349 -0.024848405 -0.020322721 -0.11356545 -0.0945771 0.07237914 0.032752674 -0.12611286 -0.11341307 0.10952091 -0.027052036 0.09873086 -0.1901258 0.021661788 0.15202609 0.05407243 -0.02481382 -0.017212568 0.040854875 -0.04114885 -0.014709561 0.05234249 -0.114211954 0.19005002 -0.21311785 0.121947505 -0.17065185 0.08620849 0.05063965 -0.09083694 -0.0038524237 0.11997639 -0.12446486 -0.030083705 -0.0023149215 0.20992826 0.03796391 0.049062453 -0.03250015 -0.06271382 0.04644596 -0.028154014 0.059379317 0.024359524 0.060135134 0.18445507 0.015741907 0.08223414 0.12208983 -0.15331014 0.07709991 -0.085516535 -0.030437196 0.0018301541 0.14259188 0.1412469 -0.0011764071 0.018637162 0.044129994 -0.13490577 -0.038432 -0.02841566 -0.022874761 -0.075251214 0.13216701 -0.15818235 0.031614695 0.18807317 -0.108671956 -0.11333097 
0A -0.09304286 0.05238907 0.0017603687 0.1613606 -0.05842362 -0.047112793 -0.04493706 -0.20730817 0.02389064 -0.09370953 -0.20927809 0.068438254 -0.2089824 -0.12522627 0.02884558 -0.15075742 0.031668738 0.064258754 -0.042872608 0.024517605 -0.058754463 -0.02023803 0.03519565 -0.065095514 0.03191814 -0.13169663 -0.004083763 0.1226311 -0.07135777 -0.087033495 -0.10260542 -0.016314691 -0.0618301 0.041761 -0.040287476 -0.15957263 -0.028253999 -0.063360155 0.043163653 -0.066074654 0.004439989 0.014008115 -0.031949397 0.0009638956 0.050663117 -0.08075109 -0.1400712 0.034881935 0.012056588 0.123125724 0.059140526 0.08530586 0.03133146 -0.0023382606 -0.027682789 -0.15194374 -0.17336036 0.1051679 0.2285898 -0.1452723 0.024387063 0.1197127 -0.068127416 0.0041492037 0.025357893 0.014175324 0.08081875 -0.07679032 0.06809285 0.23611996 0.15605153 -0.017720882 -0.076938026 -0.027809026 0.07655335 0.0651463 -0.11349211 -0.0070982687 0.15115112 -0.09056211 0.023776881 -0.29022837 -0.074266076 0.096282 -0.07585621 0.094495066 0.06796317 -0.058047768 -0.006832301 -0.060960162 -0.04906779 0.021576155 -0.16114168 0.21023625 0.07090467 -0.24225685 -0.0058265664 0.06359947 -0.10771928 -0.00010510792 
： 0.007879766 -0.005215967 -0.00076743285 0.13756645 0.002790479 -0.038354445 0.027979674 -0.06591362 0.087309666 -0.13650967 -0.10692114 0.022885103 -0.044577897 -0.1338516 0.027186988 -0.053841036 -0.00049047405 0.053388905 0.065349765 0.10667828 0.11842832 -0.15405725 0.10733026 -0.18605997 0.08941274 -0.11116061 0.034966238 -0.014046673 -0.07925015 -0.20011343 0.042044085 0.085587636 -0.20926523 0.036996886 0.053609967 -0.0882173 0.13567136 -0.04866433 0.014566569 -0.11024699 0.021020329 -0.06255505 0.12812917 0.0053166216 0.10555979 -0.027280087 0.056310605 0.03566591 -0.058607507 0.06708169 -0.09392924 0.019129092 -0.09327001 0.15738809 -0.054959252 -0.13704404 -0.20204516 0.019813506 0.12887512 -0.0872525 -0.043716583 -0.0068123266 -0.10968714 0.04828258 -0.19325249 0.15005426 -0.05994022 0.029167522 0.031708978 0.10588481 0.008497072 0.0984258 -0.023778016 0.04590837 -0.008845635 0.22216013 -0.071379095 0.037570488 0.116488375 0.027553653 0.04412528 -0.2840117 -0.10196455 0.100093596 0.101227924 0.087099805 -0.09393509 0.07646468 -0.10964312 -0.04945568 -0.06506648 0.027358402 -0.0075590163 -0.0040862593 0.27367616 -0.1440485 -0.008631706 0.11257195 -0.14547928 0.09464308 
。 -0.04779504 -0.09510748 0.023454946 0.065774515 -0.09472072 0.13040797 0.099688046 0.029809957 -0.11001576 -0.16213967 -0.2550207 0.07697262 -0.07417785 -0.08676115 0.05066743 -0.13714792 -0.021587733 0.19523594 -0.07628402 0.0735992 0.010274298 -0.021123406 0.008392019 -0.08104471 0.08403661 -0.13339965 0.0387375 0.022467434 -0.0029404843 -0.113136925 -0.064396545 -0.014679181 0.12827167 -0.06965284 -0.19233821 -0.088213064 0.15826394 -0.07406125 0.09116601 -0.027293993 -0.017334836 -0.025858693 0.025621463 0.08219054 0.08362923 0.04332894 0.00580723 -0.04195464 -0.011506346 -0.0031919067 -0.12770168 0.21453236 0.06901336 -0.041526288 -0.054177225 -0.016034989 -0.18118162 -0.18997543 0.04689798 -0.27646932 0.08857141 0.14463142 -0.08458148 -0.0014967019 0.042399544 0.03109359 0.07672575 0.02127923 -0.078948684 0.21196355 0.147261 0.04666512 -0.06515924 -0.06441964 0.008935736 0.025638513 -0.103641614 0.19008444 0.15210478 -0.08032928 0.05129652 -0.12137726 -0.005378063 0.037021108 0.12800716 0.11005105 -0.10817833 0.0075715347 0.06520669 -0.036810838 -0.07349263 -0.02897985 -0.022931457 0.1537709 0.12952067 -0.18730867 -0.002338075 0.062022466 -0.017421933 -0.032637317 
！ -0.061871156 -0.009774878 0.014122249 0.033467095 -0.057629943 0.09355692 0.08458532 -0.027456429 -0.16089645 -0.0841329 -0.19890545 0.1449504 -0.034639888 -0.04713294 0.067043014 -0.11306534 0.010234056 0.14845845 0.032912888 0.011618124 -0.05016232 -0.08736763 0.015140757 0.037434276 -0.0142096765 -0.17880136 0.043130852 -0.006103295 -0.016005239 -0.11931329 -0.11357194 0.06224602 0.03135253 0.03435172 -0.10211684 -0.06531072 0.15583202 -0.16928697 0.13679573 0.052484915 -0.0014766945 -0.023165595 -0.027558232 0.098232515 0.029981513 0.061709512 0.06965442 -0.036088157 0.007927943 0.07736782 -0.05173394 0.21360524 0.06445924 0.09188693 -0.072839834 0.03154133 -0.19760542 -0.054937307 -0.049222413 -0.25488377 -0.04255787 0.31499064 -0.14899176 0.058320906 0.036525764 0.10296501 -0.034696247 -0.058387153 -0.059442483 0.17250898 0.1652342 0.1292615 0.038391847 -0.097544305 0.051153693 -0.005270438 -0.08841417 0.16848415 0.012642006 -0.1226028 -0.009219162 -0.13427462 0.030735994 -0.029048098 0.1773275 0.09549048 -0.00514954 -0.05890618 0.076123856 -0.045918155 -0.13742311 0.043285124 -0.03973974 0.09427592 0.043331742 -0.24440171 0.11017122 -0.038652282 -0.0062641986 0.01981131 
万 -0.03458712 -0.01880391 0.11378209 0.022071827 0.041822415 -0.07618796 -0.02220604 -0.018532615 -0.07159866 -0.06346584 0.027288163 0.0919342 -0.18965325 -0.10680652 -0.03267416 -0.0043080486 0.1677217 0.0011053466 0.10037591 -0.03327211 0.14779827 0.13955128 0.07378562 0.017858462 -0.06172952 0.017012978 -0.09597544 -0.06259196 -0.050070424 0.023247924 -0.023891268 0.031860445 0.01257282 0.10377817 -0.18893224 -0.06447292 -0.023030564 -0.2667117 0.031902976 0.14031808 -0.018525299 -0.08308128 0.045090143 0.07506544 -0.1585998 -0.2171988 0.12252982 0.031378083 -0.09475091 0.08629129 -0.085457586 0.093805216 -0.09471475 0.13091958 -0.063874304 -0.01178873 -0.21996349 -0.051722396 0.20304935 -0.06455016 0.07256235 0.098966874 -0.06433219 0.0014747068 -0.09056208 0.11191464 -0.05709549 -0.013302085 -0.12182853 0.18916033 0.025106259 -0.16805911 0.03624644 0.018474298 -0.009125986 0.12919031 -0.16355406 0.018542316 0.097805046 -0.029698111 0.13224258 -0.12116692 -0.10498878 0.027953008 0.009576767 0.09051799 -0.07939835 -0.053111564 -0.034775812 -0.05199222 -0.16104797 -0.075615674 0.043017842 -0.012271059 0.16135786 -0.23986183 0.1377155 -0.064166285 0.07588132 0.0752056 
出售 -0.10824112 -0.12694047 0.10326453 0.122135095 -0.0938278 0.14470284 0.13262947 -0.055025235 -0.09721464 -0.005671251 -0.15015116 0.17337924 -0.048228674 -0.105738156 0.013993049 -0.11268425 0.108703494 0.046877734 0.060260948 -0.026475376 0.116017886 0.19186674 0.12000516 0.05629401 0.028900716 -0.05719111 -0.10104072 0.05957768 0.017359884 -0.006058064 0.07143131 0.05665794 -0.031188859 -0.044539884 -0.07773613 -0.035459433 0.025109809 0.011049044 0.049200296 0.13979997 0.035061993 -0.029181108 -0.03476598 0.056027293 0.052895572 -0.15285769 0.108360074 0.024576921 -0.019900603 -0.05920195 -0.039621316 0.07359462 0.09410027 0.23607534 0.2080665 -0.10446484 -0.010337893 -0.18788703 0.041827194 0.058519263 0.081026115 0.17707545 -0.1507079 -0.114982754 0.021378813 0.18348509 0.11781116 -0.0014072679 -0.1277241 0.07392813 0.12525332 0.085500665 -3.678433e-06 0.13751478 -0.0072147497 0.104393415 -0.031925987 0.045820255 -0.10828341 0.0677172 -0.099687606 -0.2298608 -0.089462124 -0.031174619 0.007168332 0.016956845 0.05391846 -0.027692605 -0.106126845 -0.1545066 -0.008123967 0.08592146 -0.09894698 0.22998743 0.13527742 -0.07624787 0.08473755 0.13600166 0.008796425 -0.0060298033 
的 -0.08862739 0.0919921 -0.15433168 0.0833685 -0.07747918 0.08896418 0.19933873 0.07713637 -0.0074934335 0.022909522 -0.03208411 0.07954934 -0.024529997 0.00040462927 -0.034257837 -0.09211181 -0.009660338 0.07778043 -0.12973034 -0.10925089 0.04178798 0.05207387 0.03508953 -0.0137854405 0.059436 -0.09894541 0.11598535 -0.023353182 -0.096278235 0.008865476 0.08466228 -0.11320932 0.06891594 -0.15905511 0.03621897 -0.1468115 -0.0026020543 -0.088110134 -0.14168043 -0.036899988 -0.06948684 0.0068258876 -0.11364459 0.042658 -0.06561719 -0.025832854 -0.039062694 0.0005866084 0.11131738 -0.0885654 -0.18023139 -0.054304596 0.083604574 0.10241438 -0.009582606 -0.12275145 -0.17361823 -0.12651998 -0.02160177 -0.10633411 0.115352914 0.116187006 -0.06964056 0.034247357 -0.004205108 0.27223322 0.102815025 0.07537726 0.0654345 0.06106349 0.18386434 0.068691395 0.09958971 -0.24391373 -0.09849913 0.16243848 0.021979997 0.15576918 0.11050561 0.02456377 -0.05963292 -0.23240823 -0.15562676 0.05761336 0.06823388 -0.063324586 -0.08435267 -0.04772219 0.09574854 -0.049229838 -0.039774396 0.046570234 -0.12385082 0.12558644 0.1436829 -0.045997296 -0.08070161 -0.112830415 -0.12520656 0.05572166 
、 -0.061867636 0.04661938 -0.1751388 0.2049263 -0.04320774 0.16397867 0.081145406 -0.04948829 0.068616696 -0.11696311 -0.21861464 0.043304738 0.09219747 -0.15087742 0.017862376 -0.14069787 0.0018570872 0.042971097 -0.0073120245 -0.015126413 -0.043933492 -0.0061209523 0.05109837 -0.16062087 0.2236297 -0.054268524 0.09658825 0.03345425 -0.119804054 -0.069179125 0.016888311 0.026802013 -0.094980426 -0.023789894 -0.15471186 -0.0055840467 0.0027173627 -0.23991576 -0.112647474 0.03458179 -0.08055773 -0.05146932 0.08657582 0.019991333 0.05138081 0.07747952 -0.09114194 0.035629556 -0.00076404534 -0.033632442 -0.005265536 0.06809193 0.14939283 -0.037215125 -0.13200328 -0.054590166 -0.063030854 -0.04525131 0.011384589 -0.09680609 0.02392276 0.12575318 0.008664511 -0.067619994 0.029948551 0.030858334 0.04417229 -0.008199262 0.16653228 0.036386803 -0.07236169 -0.24902523 -0.06777583 -0.007942286 0.012941946 0.05805548 -0.08656041 0.03568164 0.12195856 0.029498892 0.099709764 -0.19177417 -0.10696712 0.033229552 0.33201367 0.08077275 -0.032917753 -0.039337292 -0.08796912 -0.101326756 -0.07253049 -0.005328248 -0.11079018 0.061240133 0.21849684 -0.12034284 -0.05275678 -0.009968335 -0.047223262 -0.056057815 
2 -0.0050179497 0.0106676575 0.13736543 0.008308889 -0.23131165 0.07450099 0.12553002 -0.06741516 -0.1031085 -0.07545904 -0.231541 0.26065293 0.008021194 -0.07225856 0.09704307 -0.14917472 0.029893868 -0.06901768 -0.052105896 -0.036775753 -0.09645106 0.06963857 0.08880033 0.061500516 -0.05917039 -0.10718024 -0.009910575 -0.020979622 -0.09922215 -0.090518996 0.039282776 0.03416846 -0.06713097 -0.057861336 0.00679627 -0.023328876 0.050270952 -0.32079163 -0.14980906 0.09010173 0.011357171 0.025370814 -0.024894962 -0.054397404 0.06535173 -0.083852865 -0.119880565 -0.02965486 0.25067225 -0.009252017 -0.0054648113 -0.064698495 0.045504894 0.025331866 0.015492555 -0.055970408 -0.14714395 -0.06290654 0.18017569 0.070889056 -0.032997344 -0.09646574 -0.040876407 -0.025003294 -0.12322579 0.15022846 -0.06601316 0.13415429 -0.15630944 0.06678305 0.15215822 -0.08900845 -0.060955416 -0.06944683 0.110865645 0.13025552 -0.0611424 0.023024457 -0.008382282 -0.14043936 -0.081432834 -0.09596777 -0.09445304 -0.023753697 0.11512263 0.10306023 -0.049935672 -0.007106104 -0.04642433 -0.052750625 -0.01671339 -0.08984781 -0.040356442 0.11089881 0.07521651 -0.097921975 -0.21311343 0.08564998 -0.032527827 0.02452736 
有 0.021684106 -0.03648005 -0.018121192 0.1559598 0.009986826 0.03684163 0.15364124 -0.04951463 0.039806 -0.013764156 0.027478179 0.04214418 0.07578086 -0.16156012 0.11516308 -0.045613315 0.07709047 0.0853939 0.07763966 -0.15166558 0.048003007 -0.01070482 0.010405737 -0.025082316 -0.02664985 0.026721234 0.094150245 0.08486438 0.038133256 -0.098101504 -0.0022238 -0.1348287 0.12057656 -0.11620822 -0.15547803 0.007642421 0.10034078 -0.0256463 -0.2101591 0.0544432 -0.0441766 0.0871717 0.07659328 -0.06856065 -0.045516696 0.019797832 -0.21179338 -0.0149971405 0.15286864 -0.049082674 -0.0070511466 0.2004693 0.11954403 0.22844696 -0.06597798 0.08938523 -0.12884964 -0.2108654 0.2833502 0.0139453905 0.020388234 0.16787171 -0.13925347 -0.19454274 -0.05056256 0.042579006 0.067767136 -0.036966205 -0.013259422 0.028199973 0.09845622 -0.05449148 -0.0026909972 -0.18633969 0.03323553 0.06955492 0.08355824 0.015012827 0.104904495 -0.06588516 -0.050855152 -0.081422016 -0.12993221 -0.06465545 -0.0935354 -0.07755294 0.04679931 -0.0768214 -0.019925296 -0.112662196 -0.17912666 0.03210099 -0.09826918 -0.015554183 0.062359225 -0.11586686 -0.02672254 0.056320727 0.08367736 0.16650198 
平 -0.0978846 0.03804994 0.075511925 -0.053543568 -0.13439412 -0.077064306 0.046927202 0.026460305 0.008661937 -0.08603709 -0.018760603 0.13473137 -0.08288786 -0.07272988 -0.05575948 0.08135174 0.14338177 0.009211068 0.08404173 0.06358747 0.20296662 0.02429471 0.106813245 0.04118071 0.0761816 -0.025300018 -0.032566156 -0.13444044 -0.13506462 0.064561345 -0.03024131 0.084205836 0.0036324374 -0.053145755 -0.13398308 0.007485034 0.014528514 -0.087407805 -0.020626776 0.10146366 -0.095240265 -0.07319472 -0.05919543 -0.089905635 -0.046493337 -0.17280836 0.041486926 0.027233277 -0.084173605 0.040366344 0.13426527 0.013953343 0.05795044 0.104302645 -0.022884639 -0.11714984 -0.2629977 -0.13768156 0.2792521 -0.15948212 0.056433152 0.12629607 -0.017989533 0.08120567 -0.17707536 0.13932812 0.08240016 -0.077689014 0.027734868 0.009949405 0.03699416 -0.023936432 -0.005677404 0.0043467763 -0.050410632 0.2505158 -0.2028203 0.020363381 0.07103175 -0.06510729 0.016943399 -0.090047985 -0.010851529 -0.051668514 0.0898176 0.09584914 0.09042575 0.13578203 -0.16388714 -0.096662894 -0.17637202 -0.17242809 -0.044438776 -0.006361053 0.08694049 -0.14925264 0.047214963 0.04646121 0.08104448 0.11213144 
电话 0.073057756 -0.06907148 0.14130956 -0.067808114 -0.032306634 0.12734403 0.17477408 -0.14091621 -0.11670361 0.08680626 -0.17379051 -0.0013401665 -0.0526848 0.0016780054 -0.0500704 -0.25116184 0.030108565 0.042506136 -0.019013394 -0.05085214 0.14346406 -0.040588565 0.1355292 -0.049943525 -0.2134498 -0.09363885 0.023860388 -0.11770465 -0.028447716 -0.078724176 0.0802376 -0.2061763 0.08364177 0.04680996 -0.17323695 0.0382239 -0.17202212 -0.063631654 -0.041414164 -0.06368531 0.13554251 0.021109637 -0.018610967 -0.08961181 -0.08503505 -0.0060420143 -0.05270963 0.008231035 0.011509492 -0.043383937 0.11804316 0.0074658333 0.0081386175 0.20034933 0.01921385 0.067392044 -0.20394197 -0.10711732 0.2175289 -0.017577177 -0.01929705 0.016673148 -0.07946787 0.03374543 -0.018932138 0.07737214 0.045517035 -0.008762415 -0.104339406 -0.017665846 0.061418355 0.09313179 0.042729143 -0.00063351187 -0.071658716 -0.013719498 -0.108922206 -0.100136355 -0.09488483 0.04795342 0.13617611 -0.2630378 0.07716159 0.008716766 0.14373651 0.19176328 0.007942838 0.16358687 0.0052349987 -0.09514429 -0.006549765 -0.0889489 0.04555746 0.052163877 0.16968106 -0.020851113 -0.10845573 0.05901502 -0.019072626 -0.0029547 
】 -0.014115544 -0.031132353 0.1467175 0.0250844 0.031669468 -0.04877408 -0.1978769 -0.22926666 0.04881436 -0.18599202 -0.27313218 0.10511206 0.026367052 -0.05051905 0.08496284 0.066400334 0.13876952 -0.059273146 -0.121013775 0.050436072 0.027763948 0.022063505 0.11058893 -0.11281121 -0.026862359 -0.15323953 0.050490517 0.17473947 -0.07565197 -0.110950604 0.04641607 -0.011689586 0.11761475 0.07094954 0.00504522 -0.08121477 0.22466502 -0.16340367 -0.052924138 -0.1823818 0.03053677 0.05956491 0.0390899 -0.07039253 0.06790387 -0.078545585 0.0067668706 -0.047454193 0.113653794 0.0608685 -0.036149673 0.10671775 0.017798943 0.037659325 -0.10670627 -0.21535859 -0.09641788 -0.05484037 0.08489646 -0.040462945 0.012224425 0.15303707 -0.13190964 -0.14444132 -0.091415234 0.0976454 -0.043808307 0.024571339 0.16017897 0.11399333 -0.021647505 0.06724267 -0.021325124 -0.094430335 0.018489616 0.03304952 -0.019360896 -0.08018302 -0.02854967 -0.03394297 0.09799155 -0.254206 -0.17423801 0.061360907 0.1599132 0.09160848 -0.059833188 0.040771957 -0.021208834 -0.02689933 0.030526154 0.11417401 0.012483356 0.06669135 0.04000314 -0.009004829 0.035010837 0.09764482 -0.037526216 0.030664846 
【 0.042499796 0.05939923 0.049890164 0.15391213 0.058538917 0.055646095 0.05691085 -0.09779294 -0.09793055 -0.09897328 -0.097837955 0.08826114 0.04276292 -0.01030677 0.04764448 0.067073226 -0.042517994 0.2673929 0.061414987 -0.11481378 0.09133697 0.013202299 -0.043735065 -0.045487396 -0.08151942 -0.12152441 -0.09985641 -0.004236346 -0.050265655 0.02562624 0.09162637 -0.20583856 -0.0578489 0.12379617 -0.044506464 -0.035252925 -0.0034114355 -0.13721624 -0.004782988 -0.02467528 -0.097808756 0.06994109 0.022917472 0.08677292 0.033522334 -0.122829475 -0.011843806 0.025142312 0.07447525 -0.14889167 -0.09176975 -0.01984997 0.012058561 0.053237956 -0.16344358 0.062953636 -0.18350618 0.0016906029 0.063470006 -0.12210714 -0.0029236637 0.03172453 -0.037270166 0.08479896 0.0583661 0.12411982 0.004114924 -0.05696656 0.0448821 -0.053024035 -0.073508024 0.085001126 -0.042529378 0.08701953 0.1789942 0.15392178 0.061309673 -0.049583845 -0.12398009 -0.08724912 -0.03673557 -0.29293752 -0.05617083 0.013114338 0.093984544 0.15069994 -0.047985293 -0.028641177 -0.09176961 -0.20187432 -0.049231283 0.04638698 -0.057997864 0.3177256 0.1885697 -0.07267232 0.030075056 0.18279615 -0.018263929 -0.098912746 
平米 -0.08319001 0.039635394 0.008946484 0.0010039912 -0.1486528 -0.08962015 -0.020675186 0.011758698 -0.0052243955 -0.012966456 -0.10633709 0.16150561 -0.09442238 -0.094743915 0.009699973 0.11224264 0.037755076 0.03040855 0.013534422 0.08941209 0.15933405 0.04979897 0.13728459 0.07072721 0.048649926 -0.031994414 -0.060992304 -0.08738336 -0.11581601 0.12956633 -0.06927328 0.016511451 0.030494098 -0.06768431 -0.14783275 -0.06979239 0.042391915 -0.058338184 -0.07371408 0.05102503 -0.09357874 -0.055557366 -0.046658736 -0.12023321 -0.07143563 -0.11723344 0.09988934 0.041027468 -0.059575923 0.011350786 0.1556129 -0.074952774 0.052960612 0.19160108 0.02522471 -0.07614008 -0.21602762 -0.16429211 0.21504197 -0.0932273 0.031297527 0.17103054 -0.07848747 0.0998948 -0.17706458 0.112245396 0.11009948 -0.20977205 0.06916423 0.1020222 0.11152015 -0.03169046 -0.032882735 0.14398627 -0.011178518 0.20340611 -0.18089733 0.012041966 0.11073075 -0.018156838 0.052508228 -0.0312928 -0.091864765 -0.006134362 0.08765042 0.01173499 -0.024700535 0.09721763 -0.12943704 -0.12120488 -0.22091268 -0.16340636 -0.005529145 -0.021159507 0.020264575 -0.17117792 -0.0064406935 0.049523327 0.042025715 0.111520015 
出租 0.043938715 -0.12273459 0.073337846 -0.007976746 0.01495584 0.023046007 0.046105787 0.033813022 -0.057422634 -0.031907186 -0.12515473 0.14516926 -0.0058908793 -0.1289252 0.010939893 -0.10398535 -0.05438255 0.062095206 -0.007241077 0.14075708 0.01025589 0.16314568 0.08390184 0.030069752 -0.111503035 -0.007394548 -0.13703921 0.11238123 -0.08830411 -0.15820187 0.1220034 -0.054876838 -0.038252868 -0.11182063 -0.028035333 -0.023469625 -0.05404506 -0.028757859 -0.14542428 0.09100645 -0.0003102831 -0.046104137 -0.100373514 0.02640886 0.11075242 -0.06657133 -0.008009805 0.047272466 -0.050663613 -0.017326191 -0.10582327 0.046207834 0.10372814 0.188026 0.22053567 -0.055495 7.652508e-05 -0.2685477 0.020053867 -0.045292184 0.051101245 0.10794778 -0.041654326 -0.14553098 0.038577747 0.105497085 -0.007906207 -0.039576605 -0.10200212 0.044112038 0.09302614 0.11813923 -0.12238592 0.025277276 -0.05356347 0.18031128 -0.077954814 -0.03739064 0.04653978 -0.037883632 -0.21499641 -0.16240637 -0.12889525 -0.114331864 -0.049220134 0.061027117 0.07644962 0.08178399 0.0085363 -0.087836966 -0.06873783 -0.08565029 -0.15481102 0.22207983 0.09793021 -0.2210425 0.172494 0.16960602 -0.01282776 0.016162537 
